<?xml version="1.0"?>
<opencv_storage>
<trained type_id="opencv-object-detector-hog">
  <winSize>
    64 64</winSize>
  <blockSize>
    16 16</blockSize>
  <blockStride>
    8 8</blockStride>
  <cellSize>
    8 8</cellSize>
  <nbins>9</nbins>
  <derivAperture>1</derivAperture>
  <winSigma>4.</winSigma>
  <histogramNormType>0</histogramNormType>
  <L2HysThreshold>2.0000000000000001e-01</L2HysThreshold>
  <gammaCorrection>1</gammaCorrection>
  <nlevels>64</nlevels>
  <signedGradient>0</signedGradient>
  <SVMDetector>
    -8.02809838e-03 -1.80283543e-02 -2.80650966e-02 -2.49326676e-02
    -1.37712788e-02 4.05591540e-03 1.65245719e-02 1.67869460e-02
    8.53653252e-03 -5.03320480e-03 -2.03231573e-02 -2.22288016e-02
    -1.04270587e-02 8.19372653e-04 1.59169715e-02 1.56589765e-02
    2.19264347e-02 -1.65826845e-04 1.12614147e-02 -7.97021668e-03
    -2.98583750e-02 -1.80005319e-02 -2.16878089e-03 1.44363064e-02
    2.35724486e-02 2.56879572e-02 1.81955360e-02 1.85681600e-02
    -7.67412549e-03 -8.58482625e-03 -9.73049458e-03 1.23089021e-02
    1.40042752e-02 1.15336794e-02 2.16093194e-02 2.13351566e-02
    -9.63437092e-03 -1.91588178e-02 -2.06436496e-02 -1.61542557e-02
    -7.55208684e-03 8.73800926e-03 1.78478826e-02 1.19209383e-02
    2.24779185e-04 -8.74345005e-03 -8.01492948e-03 2.55429884e-03
    1.66172662e-03 4.25465964e-03 9.01985262e-03 8.10907409e-03
    7.88434292e-04 -6.63675321e-03 2.03203447e-02 5.02581289e-03
    4.76352172e-03 -1.43864769e-02 -5.42114303e-03 -8.44598003e-03
    -2.54922104e-03 1.13121914e-02 1.82215832e-02 2.60801185e-02
    3.57195772e-02 3.24300267e-02 1.34511164e-03 -7.09482655e-03
    -1.71607211e-02 -1.55470995e-02 -4.24416224e-03 7.56987324e-03
    -2.30208617e-02 -1.44392420e-02 -1.26772304e-03 4.33835713e-03
    1.20780068e-02 -8.84170923e-03 -7.08832871e-03 -1.09883100e-02
    -7.34493043e-03 -8.95016652e-04 -4.93615773e-03 -7.02063693e-03
    -1.76736657e-02 3.06770205e-04 -1.15413070e-02 -4.54513915e-03
    2.20503961e-03 7.47488672e-03 2.82643512e-02 3.31602730e-02
    2.28358041e-02 -5.69503754e-03 -1.01509169e-02 -2.55888700e-02
    -2.48643644e-02 -1.23373698e-02 6.66546356e-03 4.97181900e-02
    4.04651016e-02 1.01454230e-02 -2.86980271e-02 -2.06339620e-02
    -2.55731139e-02 -1.06860865e-02 8.62849038e-03 3.94009426e-02
    1.36855128e-03 -1.33789927e-02 -1.84318144e-02 -2.89055854e-02
    -1.13523174e-02 -1.57093462e-02 -1.42756253e-02 1.49282615e-03
    -1.77030812e-03 -2.61193025e-03 -4.82069189e-03 -1.33626834e-02
    -1.78712253e-02 -7.22802384e-03 -1.59396138e-02 -1.18587036e-02
    6.05172536e-04 6.72732107e-03 6.58427998e-02 2.56129242e-02
    -4.03858814e-03 -3.26632932e-02 -2.67371442e-02 -3.20130885e-02
    -1.98232923e-02 1.49026914e-02 5.41246124e-02 4.48434688e-02
    -5.50065236e-03 -2.13591773e-02 -3.30810547e-02 -3.40916701e-02
    -4.71571982e-02 -9.82553465e-04 3.80667262e-02 6.54439703e-02
    -4.95293178e-03 -4.15590126e-03 3.52197816e-03 -1.48888389e-02
    -6.65582856e-03 -4.60764812e-03 -2.92279269e-03 7.66889565e-03
    2.48656841e-03 -8.56406428e-03 1.00735482e-03 1.22029418e-02
    2.41805566e-03 -1.07023250e-02 -8.84579401e-03 -1.90773457e-02
    -8.21616594e-03 -6.59225089e-03 2.08791196e-02 -1.49659105e-02
    -1.86533779e-02 -2.57596243e-02 -3.02046277e-02 -2.75725666e-02
    2.77376082e-02 5.11536524e-02 5.72598130e-02 -1.74521294e-04
    -1.32503714e-02 -1.15645351e-02 -1.08670015e-02 -2.46076230e-02
    -1.10672833e-02 2.51520872e-02 3.66172083e-02 1.60596706e-02
    -2.61022593e-03 6.13337895e-03 1.72673576e-02 1.06461095e-02
    4.82941652e-03 -9.40105703e-04 -6.86055981e-03 -5.55244042e-03
    -8.63794889e-03 1.15567993e-03 7.61876907e-03 1.49412937e-02
    1.63461529e-02 3.85387894e-03 -9.10366978e-03 -1.45089328e-02
    -2.20069271e-02 -1.86341237e-02 -3.29905213e-03 -1.06843794e-02
    8.38478911e-04 9.10057686e-03 -7.30667775e-03 1.16407853e-02
    2.00600605e-02 2.52398718e-02 -2.71541020e-03 -7.14257034e-03
    -2.83525535e-03 5.53175295e-03 1.23002334e-02 7.59989629e-03
    3.04422923e-03 2.87276693e-03 2.91922060e-03 -1.51603809e-03
    4.06042859e-03 1.44807715e-02 1.47043597e-02 1.60498694e-02
    2.16873013e-03 -3.59711680e-03 -8.51164199e-03 -9.42853745e-03
    -1.23810116e-02 4.19099629e-03 1.18407458e-02 1.48006054e-02
    1.74591839e-02 9.65873012e-04 -4.28481866e-03 -6.06995542e-03
    -9.40211955e-03 -1.88652761e-02 7.15738023e-03 1.27677377e-02
    2.30130553e-02 2.50862073e-02 1.43656740e-02 -5.14313579e-03
    -5.10352012e-03 -1.18720345e-02 -5.78989391e-04 1.32519910e-02
    1.23836026e-02 2.89612617e-02 2.48285197e-02 1.15133207e-02
    -1.28073583e-03 -1.12050110e-02 -1.98908634e-02 -1.35990104e-03
    -7.97843654e-03 -1.06141157e-02 -2.21322216e-02 -2.25053634e-02
    -1.39265405e-02 2.43456947e-04 1.08901728e-02 1.35249970e-02
    -2.92020792e-04 9.16370563e-03 1.49207923e-03 5.88570861e-03
    -1.19508952e-02 -8.84529203e-03 -1.21325832e-02 -6.68851426e-03
    -7.44609954e-03 4.77629714e-04 -1.63302012e-02 -9.44091938e-03
    -5.08390774e-04 1.82302482e-03 1.41525874e-03 6.50285091e-03
    2.13143472e-02 1.56538691e-02 3.53911449e-03 -1.09719345e-02
    2.22946759e-02 4.61271480e-02 3.58731970e-02 1.77644063e-02
    -3.71841341e-03 -6.75858418e-03 -1.44376894e-02 -1.77807212e-02
    8.54230579e-03 1.93402786e-02 3.28856297e-02 -9.52394865e-03
    -2.49786116e-02 -3.13536413e-02 -3.23982574e-02 -1.91547386e-02
    -7.83175789e-03 2.24424340e-02 6.09457046e-02 5.61501831e-02
    -9.59756505e-03 -3.79645899e-02 -4.61623333e-02 -4.44715507e-02
    -2.89349072e-02 -1.48519883e-02 -1.76792918e-03 5.90116344e-02
    7.40086660e-02 4.22029011e-02 -7.94846215e-04 -3.03702336e-02
    -3.90224606e-02 -3.40662897e-02 -2.69044396e-02 8.18166789e-03
    6.04284965e-02 5.93260936e-02 1.15687596e-02 -3.65641527e-02
    -3.19385417e-02 -3.24302837e-02 -2.39480082e-02 -2.45012958e-02
    4.01105620e-02 5.82979582e-02 4.55907509e-02 -1.11835506e-02
    -1.76183935e-02 -2.72148065e-02 -2.27758437e-02 -1.05901957e-02
    1.60441659e-02 4.86603826e-02 4.43575382e-02 1.89695321e-02
    -7.65123544e-03 -8.23255628e-03 -1.54750468e-02 -1.49495024e-02
    8.82368186e-04 3.47795747e-02 2.46597081e-03 2.48303730e-02
    2.37237848e-02 -1.67114660e-02 -1.40662212e-02 -4.10948880e-03
    -1.95704796e-03 -9.10239178e-04 -9.61710420e-03 -9.22808331e-03
    -7.48126348e-03 -1.11704245e-02 -1.28831044e-02 3.40686971e-03
    -3.87938134e-03 -3.55619402e-03 -4.07949882e-03 -1.62117053e-02
    6.12706356e-02 3.51234451e-02 1.50067760e-02 -2.87665403e-03
    -3.91620351e-03 -1.30529236e-02 -1.35436459e-02 1.77381337e-02
    5.19663207e-02 4.11422215e-02 1.48165750e-03 -5.58780367e-03
    3.94858187e-03 -1.08525893e-02 -2.23678667e-02 9.99296550e-03
    3.46595123e-02 5.73632009e-02 -1.19796619e-02 -1.85026154e-02
    -2.02294569e-02 -6.38924632e-03 -1.00273697e-03 -7.88508332e-04
    -8.10790807e-03 -5.40379994e-03 -1.77387130e-02 -9.41769872e-03
    -1.40196774e-02 -1.53332390e-02 -1.25876488e-03 -4.28439863e-03
    -6.56390097e-03 -6.42293645e-03 -2.73971423e-03 -6.47009769e-03
    1.07829990e-02 -1.72265787e-02 -1.64947826e-02 -1.22837471e-02
    -1.93495508e-02 -1.97369289e-02 3.80379371e-02 6.08258396e-02
    5.63951991e-02 -3.94991646e-03 -9.17713903e-03 -1.61636677e-02
    -1.39667653e-02 -2.55186725e-02 -3.46007268e-03 5.84095195e-02
    6.35335594e-02 3.67043316e-02 -1.75743587e-02 -1.98812224e-02
    -1.82079747e-02 -1.14365369e-02 -1.85662974e-02 -1.72726419e-02
    -3.04928492e-03 -3.50769405e-04 -1.63702201e-02 -1.82677321e-02
    -1.63956434e-02 -1.90088954e-02 -1.75417382e-02 -2.68762410e-02
    -5.63498260e-03 4.20918725e-02 3.78559977e-02 -8.13912973e-03
    -1.64871383e-02 -1.65658109e-02 -1.65241081e-02 -1.17220068e-02
    -2.37169042e-02 -2.40502506e-03 5.69756590e-02 6.20476790e-02
    5.93552715e-04 -9.94663313e-03 -1.69696342e-02 -1.63789336e-02
    -1.33609185e-02 -8.58764444e-03 -1.04309116e-02 1.76495649e-02
    9.79880150e-03 -7.86597468e-03 -2.79136896e-02 -2.76375469e-02
    -3.31570245e-02 -2.56790053e-02 -2.67505888e-02 4.83983569e-03
    6.21919110e-02 5.69999069e-02 -1.28814783e-02 -2.55004391e-02
    -3.23804840e-02 -2.74938978e-02 -1.85716692e-02 -8.09538085e-03
    1.64683498e-02 5.41287698e-02 3.75495106e-02 -1.53798722e-02
    9.26130917e-03 5.33332629e-03 1.47266332e-02 1.42580206e-02
    6.08031033e-03 -1.72330532e-02 -3.91922658e-03 -1.36138964e-02
    1.69163535e-03 8.73555895e-03 1.41090471e-02 3.08930557e-02
    1.52665433e-02 7.49300560e-03 -9.75779351e-03 -2.15309616e-02
    -1.61680225e-02 1.53060176e-03 -1.21052088e-02 -1.18107535e-02
    -1.71371980e-03 6.19271910e-03 1.77341513e-02 6.92685926e-03
    2.39357259e-02 9.07177385e-03 -5.60070574e-03 -1.50961941e-02
    -2.87243631e-03 7.64073804e-03 1.38236023e-02 9.30274930e-03
    1.06568681e-03 -1.01399515e-02 -5.26191946e-03 -8.30987748e-03
    -3.29287872e-02 -2.77508348e-02 -5.99500677e-03 -6.29648101e-03
    6.74613286e-03 1.24929547e-02 1.33905243e-02 4.96385107e-03
    -4.18779720e-03 -4.02209572e-02 9.32602771e-03 4.75702249e-02
    4.01868969e-02 2.65652891e-02 -3.48596997e-03 -1.20260892e-02
    -2.17204746e-02 -3.60565111e-02 -2.79341005e-02 -3.32975835e-02
    -2.09639361e-03 8.96775164e-03 1.36143705e-02 2.11052243e-02
    2.02312209e-02 5.42622525e-03 -5.31970430e-03 -5.01994044e-02
    -7.83591624e-03 3.91788110e-02 4.15772274e-02 5.48630431e-02
    1.53395263e-02 -9.29609290e-04 -1.10488217e-02 -3.25407237e-02
    -1.38150509e-02 5.81047609e-02 7.41460994e-02 6.51986226e-02
    2.84152869e-02 -1.48929879e-02 -1.93080995e-02 -1.85456406e-02
    -2.52412111e-02 -1.43098608e-02 2.42905896e-02 3.18951197e-02
    7.73052825e-03 -1.91027634e-02 -1.10595701e-02 7.98302499e-05
    -1.94397275e-04 -1.31336823e-02 -2.39983220e-02 8.52717180e-03
    4.72805835e-02 4.87669334e-02 4.02605608e-02 -4.72544134e-03
    -1.68919731e-02 -1.29378196e-02 -2.99468264e-02 -1.02073923e-02
    -5.73807163e-03 -1.23345014e-02 -1.58485454e-02 -2.46346407e-02
    -2.22785417e-02 -4.70536854e-03 -3.89226316e-03 -1.23927547e-02
    4.97678854e-03 1.08715445e-02 1.29318805e-02 5.63181518e-03
    5.47506660e-03 2.79035755e-02 3.20800506e-02 3.29411812e-02
    1.10348351e-02 2.72303983e-03 -1.25796907e-03 1.75973738e-03
    -3.58568272e-03 5.95132262e-03 5.28582605e-03 1.58520788e-02
    1.45398201e-02 1.37531548e-03 9.36340820e-03 5.79915289e-03
    3.11910990e-03 -3.48572066e-04 -2.13971036e-03 -7.77630776e-05
    1.98068861e-02 2.47312579e-02 1.20654767e-02 -7.39445351e-03
    -9.71363112e-03 -5.40655246e-03 -2.09894665e-02 -2.25417446e-02
    -2.06458028e-02 -9.77614149e-03 -2.76213349e-03 -1.08961873e-02
    2.61076503e-02 1.19624771e-02 2.89621134e-03 7.03431806e-03
    1.26534952e-02 1.20351044e-02 1.97998211e-02 2.48063132e-02
    2.75457241e-02 2.98450887e-02 1.80736724e-02 1.38506135e-02
    1.37823224e-02 8.00294243e-03 9.37111676e-03 1.42768305e-02
    2.37405933e-02 3.14923935e-02 4.45438735e-03 -1.53313335e-02
    -7.56299961e-03 -1.16460882e-02 -1.20220222e-02 -1.30996956e-02
    -1.48659497e-02 -1.34610489e-03 6.25295890e-03 2.63956119e-03
    -1.48921050e-02 -1.13287866e-02 -1.38030313e-02 -2.00707782e-02
    -2.01522503e-02 -1.18066277e-02 2.82974099e-03 8.48864263e-04
    1.11393332e-02 1.16841253e-02 8.59246776e-03 5.88351628e-03
    -9.11090709e-03 -4.77145100e-03 6.94425870e-03 8.33006669e-03
    5.26449949e-05 1.93081200e-02 1.93147156e-02 1.25385784e-02
    2.56689694e-02 -1.20139623e-03 1.07088499e-02 2.10920125e-02
    2.44550928e-02 6.05202559e-03 -2.92061851e-03 -9.74076707e-03
    -1.78674292e-02 -1.85266230e-02 -2.50236709e-02 -2.25657504e-02
    -1.26684373e-02 -6.03469322e-03 -1.46929938e-02 1.58236865e-02
    2.20665913e-02 1.29353972e-02 7.88519066e-03 -1.84776064e-03
    -5.06539771e-04 1.42551129e-04 5.14543615e-03 2.69971602e-03
    -1.51079912e-02 -1.64999869e-02 -1.83111206e-02 -1.60627142e-02
    -2.25565899e-02 -2.73551513e-03 4.31580096e-02 2.50585526e-02
    -1.47275096e-02 -2.78255977e-02 -2.76624318e-02 -2.08251346e-02
    -4.59916191e-03 1.88795254e-02 4.97009717e-02 6.87902421e-02
    5.50795160e-02 -1.05072483e-02 -1.28390770e-02 -3.75114498e-03
    -1.23277297e-02 -2.65686475e-02 -2.42243055e-02 -1.09524177e-02
    -1.49453164e-03 -9.98992566e-03 -1.89005360e-02 -1.99293420e-02
    -2.78970860e-02 -1.62177216e-02 6.08199742e-03 4.22206260e-02
    5.07092699e-02 5.39485924e-02 1.78566575e-02 -1.43017070e-02
    -3.23503502e-02 -2.93547101e-02 -2.06433311e-02 6.00639789e-04
    2.68250927e-02 3.67820673e-02 4.86761257e-02 1.00498032e-02
    -1.91211365e-02 -2.98728757e-02 -2.98147313e-02 -1.44037129e-02
    3.14897508e-03 5.55291586e-03 -3.41231422e-03 -1.24423346e-03
    -9.93977766e-03 -9.39398725e-03 -2.75131352e-02 -2.85865478e-02
    -1.45840235e-02 1.53927663e-02 4.70897518e-02 5.66116944e-02
    4.67277467e-02 6.64016558e-03 -1.70178097e-02 -2.27266438e-02
    -1.54952370e-02 -7.89788924e-03 -1.44025136e-03 8.43102299e-03
    3.81425861e-03 4.12209379e-03 -3.90955294e-03 -9.21220519e-03
    -2.70844102e-02 -1.45635400e-02 2.92590004e-03 1.31813511e-02
    1.98261067e-02 1.23385098e-02 1.28276749e-02 8.25999398e-03
    -5.95601602e-03 -3.65469940e-02 -2.18172520e-02 9.21523012e-03
    3.58092710e-02 5.87183870e-02 2.92074997e-02 4.36339015e-03
    -4.94126836e-03 -2.08573174e-02 -3.02766506e-02 -2.94612218e-02
    -7.27992365e-03 4.83660912e-03 1.42330434e-02 7.37764221e-03
    1.73725979e-03 -9.40373074e-03 -1.60908494e-02 -3.57642137e-02
    -4.61605676e-02 -1.77247170e-02 1.15695549e-02 5.06477989e-02
    3.56132947e-02 2.60110926e-02 -1.76247116e-02 -3.11624222e-02
    1.99588321e-04 -6.37899269e-04 7.22655468e-03 3.66388224e-02
    5.06766811e-02 2.39606183e-02 -7.69551843e-04 -4.52608662e-03
    -3.41826980e-03 1.76830292e-02 1.36806769e-03 -1.61962919e-02
    -9.38243791e-03 -1.71632878e-02 -1.60502400e-02 -1.57706253e-02
    -5.86696295e-03 1.32949604e-02 -4.56136069e-04 -9.93288308e-03
    -1.11017199e-02 1.69782676e-02 4.69594412e-02 3.97715569e-02
    2.58090775e-02 -1.09140929e-02 -9.92339384e-03 2.23983452e-02
    1.54178748e-02 -5.09724580e-03 -7.54081062e-04 -5.35620423e-03
    -1.94238382e-03 -7.60442158e-03 -9.41991992e-03 6.52635470e-03
    2.26440672e-02 1.34966532e-02 1.54040195e-02 1.86558720e-02
    4.21773549e-03 1.24790042e-03 9.93939489e-03 1.04180463e-02
    1.61988605e-02 -1.32530862e-02 -6.14165841e-03 -6.64503081e-03
    -1.02840308e-02 -1.18814576e-02 -1.54389935e-02 -2.10590083e-02
    -1.06202401e-02 -8.24254658e-03 3.26961689e-02 2.71154158e-02
    9.10618901e-03 2.28675939e-02 1.33312466e-02 2.43001878e-02
    2.14765612e-02 1.50236292e-02 2.00303551e-02 -1.05358884e-02
    -1.02616958e-02 -1.04407920e-02 3.26765206e-04 6.41760509e-03
    -4.92260406e-05 -3.87716194e-04 -8.03530682e-03 1.69449122e-04
    7.29727326e-03 2.53398693e-03 1.68945664e-03 5.75527176e-03
    4.83641960e-03 1.29201054e-03 -1.35796266e-02 -4.75078681e-03
    1.55972755e-02 1.25300614e-02 -6.46654749e-03 -1.01993633e-02
    1.12992922e-04 -1.48843182e-03 -7.87488557e-03 -2.73181498e-03
    7.81757850e-03 9.55544412e-03 1.12475967e-02 2.90273875e-03
    6.12798845e-03 1.06952526e-02 1.14683351e-02 1.14399688e-02
    4.86831181e-04 5.85624296e-03 2.79124863e-02 8.83673783e-03
    3.49015882e-03 -1.85226987e-03 6.79629622e-03 3.37115419e-03
    1.35641526e-02 1.47242146e-02 1.19426539e-02 1.48586985e-02
    -5.88847091e-03 -2.09823716e-02 -2.46760175e-02 -1.51686948e-02
    -9.20266286e-03 -1.35146938e-02 -1.09198978e-02 -3.16628255e-03
    -8.09367839e-03 1.91733539e-02 1.13682272e-02 9.20171384e-03
    7.28706084e-03 1.93276741e-02 1.29694948e-02 3.37890489e-03
    1.38514163e-02 2.08083615e-02 -1.59749463e-02 -1.99307967e-02
    -1.11152846e-02 -1.03155207e-02 3.22641875e-03 1.27978309e-03
    -2.20206147e-03 -1.15338610e-02 -1.16229467e-02 2.17527933e-02
    1.18639963e-02 9.54752695e-03 2.56918091e-02 2.87727490e-02
    2.67262999e-02 1.89401824e-02 1.45903146e-02 1.74765643e-02
    -1.19233495e-02 -7.88349845e-03 -1.97497811e-02 -2.15342157e-02
    -1.96576566e-02 -8.02454073e-03 -1.82626657e-02 -1.09431148e-02
    -4.87973448e-03 -1.33323055e-02 -1.58685129e-02 -1.45191401e-02
    2.66658030e-02 6.10475503e-02 5.19167818e-02 2.66630668e-02
    4.19595651e-03 -1.03290454e-02 3.88596905e-03 -6.53240643e-03
    -2.34201793e-02 -1.90378923e-03 -8.97840317e-03 1.26957428e-03
    -3.83165898e-03 -7.59986183e-03 3.81822325e-03 -8.16309638e-03
    3.38497665e-03 1.98136158e-02 6.11503944e-02 6.69744387e-02
    4.24890444e-02 -4.33691870e-03 -5.38901472e-03 -6.53772755e-03
    -2.48955954e-02 -3.06815784e-02 -1.70294233e-02 2.90250164e-02
    7.01215044e-02 5.00323586e-02 1.71657745e-02 -1.19548710e-02
    -2.46376581e-02 -2.25027800e-02 -2.40909457e-02 -2.24502366e-02
    -7.85825588e-03 2.00373102e-02 3.96796782e-03 -3.75670334e-03
    -6.14596531e-03 -1.12232119e-02 -2.55693998e-02 -1.81418080e-02
    1.05527444e-02 6.19877204e-02 7.92582557e-02 2.62015034e-02
    -1.39073478e-02 -2.92792786e-02 -2.29535438e-02 -1.21047385e-02
    -8.99847876e-03 -3.82675510e-03 -4.16457886e-03 1.01669906e-02
    -1.22258393e-02 -1.39451735e-02 -2.00929437e-02 -8.87175929e-03
    -1.92351788e-02 -1.55253317e-02 -3.17022530e-03 -8.55737526e-05
    1.20093292e-02 7.62200076e-03 -2.05481681e-03 -7.72300828e-03
    -1.93568086e-03 -2.43165679e-02 -3.04687042e-02 -1.16408244e-02
    1.57289170e-02 5.22301979e-02 5.09735234e-02 3.60985622e-02
    2.77744420e-03 -3.07420716e-02 -1.65268220e-02 2.75270222e-03
    7.73622608e-03 -8.30753148e-03 -5.12196030e-03 -8.31839908e-03
    -2.03739200e-02 -8.59700702e-03 -7.74779823e-03 -2.28689741e-02
    -1.29125705e-02 -1.62880253e-02 -5.44174621e-03 2.39075571e-02
    4.04975750e-02 3.18563357e-02 -2.07449892e-03 -2.05458235e-02
    -1.42891677e-02 -1.55522432e-02 -9.70937591e-03 6.66867942e-03
    4.34270687e-02 4.65280786e-02 3.61104012e-02 -1.10017341e-02
    -2.72124745e-02 4.02549980e-03 1.03486264e-02 -8.64952279e-04
    -2.04589474e-03 -9.97124240e-03 -1.09544471e-02 -1.13006365e-02
    -1.97286159e-02 -8.53507314e-03 -1.94728617e-02 -2.11155917e-02
    -2.21358892e-02 -8.78117234e-03 3.21092904e-02 4.95489538e-02
    4.63570766e-02 1.24465972e-02 -1.72426943e-02 -8.82254075e-03
    7.11729005e-03 -8.88170768e-03 -2.09679380e-02 -1.27597116e-02
    1.65418591e-02 2.20345408e-02 4.27314127e-03 -1.63821746e-02
    1.34314103e-02 2.37518810e-02 1.36167621e-02 1.25864269e-02
    7.90644961e-04 1.12581383e-02 8.18048604e-03 -5.36898515e-05
    5.16637927e-03 -9.57112666e-03 -8.09687190e-03 -1.46837197e-02
    -1.19970711e-02 -3.93479411e-03 1.73984712e-03 -7.90827733e-04
    -1.29206628e-02 -1.12330606e-02 1.06857978e-02 3.62162665e-02
    1.79063510e-02 3.98862781e-03 -4.25227266e-03 8.96994956e-03
    1.74190793e-02 3.79788596e-03 2.19456432e-03 4.53304499e-04
    7.36841606e-03 -4.11893195e-03 -5.36720082e-03 1.37987873e-03
    -1.04061072e-03 6.11285819e-03 -8.60379916e-03 -2.89948308e-03
    -9.28923080e-04 -1.19880438e-02 -1.71293356e-02 -1.13640251e-02
    -1.41549557e-02 -8.12921766e-03 -9.49258264e-03 -1.19263039e-03
    1.12324525e-02 -1.85401959e-03 -1.37635963e-02 -1.45423096e-02
    -2.19145007e-02 -2.28910614e-02 -8.29532463e-03 -2.11537280e-03
    -7.17178220e-03 6.06355211e-03 2.22480372e-02 9.31586698e-03
    -1.81175373e-03 2.43486767e-03 8.37043766e-03 1.13682514e-02
    1.73130557e-02 1.77644249e-02 2.37772670e-02 2.39355061e-02
    8.62397719e-03 1.60740260e-02 1.30721340e-02 1.20012164e-02
    1.86818782e-02 2.61999369e-02 2.65910588e-02 3.58095467e-02
    -2.03411523e-02 -1.66071560e-02 -1.57122612e-02 -2.32425909e-02
    -2.13151220e-02 -9.68440250e-03 -5.15862182e-03 -1.48599809e-02
    -1.56231560e-02 6.84437761e-03 3.85863427e-03 -9.39253252e-03
    6.48040371e-03 2.91723525e-03 8.72048177e-03 2.29806658e-02
    1.97436139e-02 1.07557047e-02 -3.83765553e-03 -3.51783796e-03
    -7.11225584e-05 1.06305361e-03 5.24265040e-03 5.61429188e-03
    1.66793671e-02 1.48846805e-02 3.23617901e-03 2.12228373e-02
    2.45744642e-02 1.57578588e-02 1.17103616e-02 1.25358570e-02
    1.56547334e-02 2.73926146e-02 3.21596116e-02 1.53413899e-02
    -6.18481636e-03 -2.25839540e-02 -2.34868620e-02 -1.19965505e-02
    -1.80607233e-02 -9.95197892e-03 -5.36811957e-03 -8.40774365e-03
    -8.91809072e-03 -1.81435272e-02 2.65557482e-03 4.77287211e-02
    6.41047359e-02 5.26906773e-02 5.45491464e-03 -2.81853862e-02
    -3.12631875e-02 -2.50465125e-02 -8.76026787e-03 1.13872979e-02
    4.23600860e-02 8.41425732e-03 -1.74302198e-02 -2.03724820e-02
    5.01753995e-04 3.19329510e-03 -1.11086564e-02 -1.51511505e-02
    3.54346521e-02 5.58455698e-02 6.25739768e-02 2.98292842e-02
    -1.85269257e-03 -2.26990096e-02 -2.82604881e-02 -2.82705948e-02
    -1.64229330e-02 8.35160725e-03 4.60572876e-02 6.32465407e-02
    6.13024049e-02 7.13883014e-03 -2.38116905e-02 -2.30565649e-02
    -1.75353810e-02 -3.21609317e-03 -1.05248187e-02 -1.02355545e-02
    -9.27466061e-03 -2.94471718e-03 -9.54033807e-03 -1.34941796e-02
    -1.47294123e-02 -1.15418620e-02 -1.44861005e-02 1.68904103e-02
    4.84136678e-02 5.28936796e-02 2.52675824e-02 1.19347153e-02
    -6.08053058e-03 -1.81457363e-02 -1.39701609e-02 -1.03030577e-02
    -2.45963391e-02 -1.82031915e-02 -2.26291027e-02 -2.08445098e-02
    5.58876479e-03 9.87495016e-03 2.01771106e-03 -2.02559680e-03
    3.05687659e-03 1.96351707e-02 1.05422186e-02 -2.32102443e-03
    -3.27558810e-05 -8.35183263e-03 -2.26488262e-02 -1.18040880e-02
    -4.58999863e-03 -9.07738972e-03 -7.27571314e-03 -5.01105096e-03
    -5.57309296e-03 1.94083583e-02 3.47058401e-02 3.01655531e-02
    -2.93465244e-04 -1.92088250e-03 -6.66361768e-04 4.67287423e-03
    6.38844445e-03 -3.42290639e-03 -2.86034052e-03 -1.97597295e-02
    -2.43850034e-02 -2.76150163e-02 -5.03584230e-03 -1.88575368e-02
    -1.72679052e-02 -2.40813242e-03 -1.51583890e-03 9.12829768e-03
    1.21064186e-02 8.15295521e-03 3.11779254e-03 4.69638687e-03
    -2.72129532e-02 -3.03918850e-02 -3.61236669e-02 -2.72615552e-02
    6.47478178e-03 3.06761693e-02 5.06786145e-02 1.21088848e-02
    -1.88525002e-02 -2.15653777e-02 -1.58572569e-02 -2.73868348e-02
    -4.49640416e-02 -2.38244534e-02 1.47809824e-02 4.96917367e-02
    3.90163101e-02 -1.17283864e-02 -2.62044761e-02 -2.77107097e-02
    -1.50970183e-02 -1.34897744e-02 5.88881504e-03 -1.43764948e-03
    2.07074322e-02 5.24543412e-03 -1.34821432e-02 -1.80941243e-02
    -1.98253784e-02 -1.88438594e-02 -3.03191449e-02 -5.34259528e-03
    8.56031664e-03 4.47583608e-02 3.90633978e-02 3.11714550e-03
    -1.26640815e-02 -4.30215523e-03 -1.44839250e-02 -2.85900682e-02
    -2.52368134e-02 -4.68833325e-03 3.94721180e-02 3.37163210e-02
    -8.26652104e-04 -1.35980351e-02 -1.90628450e-02 -1.77053474e-02
    -2.21868716e-02 -1.98916066e-02 -1.99367553e-02 -9.77382157e-03
    -6.32769708e-03 -1.13120647e-02 -3.66750173e-03 -2.06642058e-02
    -2.49384027e-02 -3.14036682e-02 -1.46683296e-02 1.86694730e-02
    5.80465458e-02 6.92792237e-02 3.92291546e-02 2.42797770e-02
    -1.12358155e-02 -2.70104129e-02 -2.89906561e-02 -2.03430410e-02
    -1.00487527e-02 3.48088257e-02 4.93951142e-02 4.95114177e-02
    -8.25439300e-03 -2.37598810e-02 -2.57270113e-02 -2.25298498e-02
    -1.28700128e-02 -3.92011739e-03 -1.23701189e-02 -1.08748674e-02
    -5.88800665e-03 -1.04136076e-02 -2.77070962e-02 -2.15069652e-02
    -1.23227639e-02 2.53829337e-03 8.02775193e-03 9.28065740e-03
    -1.14729197e-03 -1.98834040e-03 6.00817017e-02 9.10098944e-03
    -2.63968855e-02 -2.40635499e-02 -9.43137333e-03 -4.24272008e-03
    7.47315539e-03 3.99405062e-02 6.23352267e-02 6.53897673e-02
    5.11101522e-02 2.57735560e-03 -1.92185119e-02 -1.31062558e-02
    -1.10871857e-02 -1.01671950e-03 2.05188468e-02 5.94418421e-02
    -1.72363203e-02 -1.31537411e-02 -7.16005685e-03 -1.89313460e-02
    -1.01462845e-02 -1.71239898e-02 -3.40549485e-03 -6.48689363e-03
    -1.71030108e-02 -1.90261996e-03 5.71535937e-02 5.60788922e-02
    -7.69892475e-03 -2.42198929e-02 -3.15586813e-02 -1.62263233e-02
    -9.61938687e-03 -2.00150013e-02 6.26499131e-02 6.30148798e-02
    4.00369614e-02 -2.45945174e-02 -3.44453231e-02 -3.60154361e-02
    -1.79101303e-02 -9.47042648e-03 3.39666717e-02 3.64903025e-02
    5.61201908e-02 6.40340596e-02 9.98413656e-03 -2.75557842e-02
    -3.46253887e-02 -2.87389718e-02 -2.34615635e-02 -8.09654593e-03
    -1.11675346e-02 5.66455014e-02 7.94302225e-02 2.02388186e-02
    -2.88536679e-02 -3.50290537e-02 -2.37641558e-02 -1.90281570e-02
    -2.86842100e-02 -1.84895024e-02 3.33594084e-02 6.78382069e-02
    5.01107015e-02 4.46216390e-03 -7.98693951e-03 -2.08557118e-02
    -2.19169632e-02 -2.47550458e-02 -1.06725506e-02 5.94379529e-02
    6.91377595e-02 7.74671976e-03 -3.03877033e-02 -3.20533216e-02
    -3.59234773e-02 -3.62130776e-02 -4.04005311e-02 -2.94933412e-02
    4.62193321e-03 2.51893606e-02 -7.82199437e-04 -4.21066349e-03
    -5.62765636e-03 -1.11996690e-02 -9.45620518e-03 -2.57650111e-02
    -4.51452011e-04 1.15049146e-02 3.25358734e-02 3.14469263e-02
    1.61830448e-02 1.85155515e-02 1.45333642e-02 1.90295652e-03
    6.51752297e-03 -4.66139521e-03 -1.85217224e-02 -9.76527296e-03
    -2.07428150e-02 -1.11766569e-02 3.01410188e-03 1.83474422e-02
    1.42642101e-02 1.38848033e-02 -9.31667630e-03 -1.62312835e-02
    -2.40819645e-03 3.44732450e-03 2.25618691e-03 1.29581550e-02
    1.77773982e-02 2.86091287e-02 1.07898992e-02 -1.56092830e-02
    -3.07196807e-02 -1.50530133e-02 -5.32847410e-03 -6.44307677e-03
    1.73721323e-03 1.19259069e-02 2.43064873e-02 1.57962907e-02
    -1.69826194e-03 -6.60770223e-04 1.02248928e-02 1.44312205e-03
    2.99087569e-05 -1.30593274e-02 -2.17336211e-02 -2.27829088e-02
    -8.28963297e-04 -1.74570605e-02 -7.38305319e-03 7.92954210e-03
    1.64426975e-02 1.42784463e-02 1.00701144e-02 -5.06182341e-03
    -8.93170666e-03 -6.22735824e-04 -1.12625184e-02 1.10089108e-02
    2.49305964e-02 7.69038592e-03 -4.91486071e-03 -1.03171282e-02
    -2.37775929e-02 -2.17611622e-02 -3.44193337e-04 -1.21209212e-02
    4.33713244e-03 2.08127163e-02 2.50062589e-02 1.11070452e-02
    2.56958045e-03 -1.38002587e-02 -2.57576611e-02 -1.29957101e-03
    -1.62581857e-02 -1.12735899e-02 6.16407022e-03 9.71967634e-03
    1.23439394e-02 3.90302483e-03 1.88364170e-03 1.63948792e-03
    -6.29359763e-03 -1.21866744e-02 -1.40622584e-02 5.17992536e-03
    4.73264093e-03 1.12117995e-02 1.57658104e-02 2.82136742e-02
    2.97687892e-02 5.75625431e-03 -2.27218252e-02 -7.59692863e-03
    5.17638400e-03 1.40674179e-02 -3.78423766e-03 -7.05605140e-03
    -1.92405228e-02 -2.27645263e-02 -1.44799137e-02 -2.62428448e-02
    -1.33774895e-02 2.62887566e-03 7.49171153e-03 -3.25428625e-03
    4.67809942e-03 -9.21227131e-03 -6.17847312e-03 -3.72312847e-03
    -1.45065542e-02 -2.68626232e-02 -1.96393672e-02 -1.42333442e-02
    -4.50647436e-03 8.09059851e-03 3.74928899e-02 4.72516008e-02
    2.23299079e-02 2.48352922e-02 1.58462976e-03 -2.35876888e-02
    -2.02982984e-02 -2.00524200e-02 -1.05113639e-02 2.25758627e-02
    4.43253033e-02 5.44241145e-02 -2.44545527e-02 -2.51181666e-02
    -1.20219011e-02 2.62736646e-03 -2.49667279e-03 -3.09989695e-03
    -9.35438182e-03 -5.83041226e-03 7.69611215e-04 -4.37904568e-03
    -5.54585410e-03 -8.45206622e-03 -3.38904746e-03 -1.37438904e-02
    -1.17312539e-02 -3.46058840e-03 1.10195875e-02 1.85689740e-02
    5.99756576e-02 1.33921914e-02 -2.19383519e-02 -2.52574217e-02
    -2.28868481e-02 -2.13030595e-02 -6.24930160e-03 3.11341342e-02
    6.45337924e-02 7.49540478e-02 4.56524044e-02 -9.04503977e-04
    -3.36930528e-02 -2.98554450e-02 -3.31518613e-02 -1.84759069e-02
    3.99849424e-03 5.91079965e-02 1.12449648e-02 2.74280924e-03
    -1.31866066e-02 -1.47570148e-02 -1.56167569e-02 -1.92382243e-02
    -1.27336895e-02 -3.24839307e-03 1.99263543e-02 9.51597746e-03
    1.35117793e-03 -9.30673350e-03 -1.91670042e-02 -1.45425778e-02
    -3.16616893e-02 -2.12607384e-02 -1.70944054e-02 7.62774469e-03
    7.63732642e-02 6.53931648e-02 3.39184925e-02 -1.77125279e-02
    -2.46307887e-02 -3.09215151e-02 -1.06302910e-02 -4.46500396e-03
    5.01437150e-02 3.06551084e-02 5.28182499e-02 4.33764495e-02
    7.68503081e-03 -3.99435451e-03 -1.56550519e-02 -1.46937175e-02
    -1.11778909e-02 5.83266513e-03 -1.82537234e-03 -1.07314708e-02
    -3.87285743e-03 -1.09699005e-02 -1.72715466e-02 -3.00316419e-02
    -2.38890126e-02 -2.06382852e-02 -6.61507202e-03 -2.06581708e-02
    -1.66239683e-02 -2.39790976e-03 -4.56152530e-03 -5.81792556e-03
    -1.46637475e-02 -3.40397432e-02 -2.75289137e-02 -2.13816166e-02
    6.75992109e-03 3.90942357e-02 4.08390574e-02 1.78158358e-02
    7.71232415e-03 1.10574695e-03 -8.18605442e-03 -7.51825888e-03
    -3.43218446e-03 -6.19525928e-03 -3.65900015e-03 -2.21043429e-03
    -2.06875009e-03 1.45310787e-02 1.30954925e-02 7.66447419e-03
    7.84353167e-03 7.72313401e-03 -1.62166134e-02 -6.93464419e-03
    -3.77317006e-03 -1.83151806e-05 7.96186458e-03 5.99251315e-03
    -1.14745125e-02 -6.48534391e-03 -7.83250015e-03 -7.48087233e-03
    -1.56812817e-02 -1.81363598e-02 -1.28910746e-02 5.99772949e-03
    6.29612477e-03 1.25441942e-02 1.40254924e-04 9.46176238e-03
    3.68156616e-04 -2.42358036e-02 -1.76496822e-02 -3.34441895e-03
    3.53014469e-03 1.14252176e-02 1.69209205e-02 2.56977212e-02
    2.24114135e-02 -8.32872093e-03 -1.91402212e-02 -9.42440517e-03
    1.35138677e-03 -1.84365944e-03 4.84845834e-03 9.48022027e-03
    2.22288668e-02 1.33697167e-02 8.37915856e-03 -1.21748233e-02
    -1.75905768e-02 -9.89770982e-03 -1.18093900e-02 9.75967734e-04
    5.50563028e-03 1.05308825e-02 2.59492565e-02 1.03665981e-03
    -1.07837636e-02 -1.49134975e-02 -1.08866896e-02 -7.77220447e-03
    7.11873081e-03 8.48358963e-03 1.42470449e-02 1.33254472e-02
    -1.11861980e+00</SVMDetector></trained>
</opencv_storage>
