<?xml version="1.0"?>
<opencv_storage>
<s64d794f40 type_id="opencv-object-detector-hog">
  <winSize>
    64 64</winSize>
  <blockSize>
    16 16</blockSize>
  <blockStride>
    8 8</blockStride>
  <cellSize>
    8 8</cellSize>
  <nbins>9</nbins>
  <derivAperture>1</derivAperture>
  <winSigma>4.</winSigma>
  <histogramNormType>0</histogramNormType>
  <L2HysThreshold>2.0000000000000001e-01</L2HysThreshold>
  <gammaCorrection>1</gammaCorrection>
  <nlevels>32</nlevels>
  <signedGradient>0</signedGradient>
  <SVMDetector>
    -1.62697360e-02 -2.96429303e-02 -1.49466228e-02 -3.61089520e-02
    -9.80407279e-03 -9.97189060e-03 4.37665991e-02 2.16296967e-02
    -1.30576733e-02 1.15901595e-02 -9.86963790e-03 -4.37382929e-04
    -1.67544093e-02 4.24599927e-03 6.94442354e-03 6.45667464e-02
    2.52548475e-02 -5.59390895e-03 -5.92570473e-03 -9.65401623e-03
    -3.71804577e-03 -2.21395101e-02 -1.21609448e-02 -1.63637078e-03
    4.66294363e-02 4.90105599e-02 1.18838884e-02 8.02256353e-03
    1.23380767e-02 -4.28976445e-03 -1.77119188e-02 -1.27427168e-02
    -3.71264690e-03 1.85974631e-02 2.05081329e-02 8.83867685e-03
    -1.03345048e-02 2.98329024e-03 -3.17583559e-03 -7.28609832e-03
    -7.36911176e-03 -3.91481491e-03 4.07950282e-02 1.91821437e-02
    -1.54025061e-02 6.04331028e-03 1.14144171e-02 1.60759613e-02
    1.23567712e-02 -2.86945514e-03 -8.42297077e-03 4.24920805e-02
    3.63817662e-02 -1.98439788e-02 -6.87423395e-03 -1.02269584e-02
    -2.41142772e-02 -3.67413014e-02 -9.26080742e-04 1.90170319e-03
    1.92889236e-02 2.36635655e-02 4.84635448e-03 -6.36890205e-03
    -9.84048471e-03 1.29237389e-02 -2.27770098e-02 -2.53891610e-02
    5.00248605e-03 7.13298563e-03 1.97834019e-02 -3.71091254e-03
    -1.50479786e-02 -1.76448864e-03 -2.69932440e-03 9.93324257e-03
    3.36508565e-02 -2.48380657e-02 7.65345665e-03 1.99422613e-02
    -4.71060649e-02 -1.05018448e-02 -4.76347543e-02 -4.63151522e-02
    -3.13931629e-02 5.07394448e-02 3.89943132e-03 -9.93412919e-03
    -3.66201415e-03 -1.20308260e-02 1.44583378e-02 -1.45779573e-03
    2.79615503e-02 1.33580342e-02 -4.62336605e-03 -2.38624196e-02
    -2.78849732e-02 -3.43702361e-03 1.07333222e-02 6.81682080e-02
    2.61431113e-02 1.23386066e-02 -2.46906914e-02 2.62521580e-02
    -2.11814977e-02 -4.54677194e-02 -1.30098619e-04 6.29672632e-02
    -3.21071520e-02 -4.11014073e-02 -2.51832213e-02 -3.89007069e-02
    2.11485513e-02 2.37485785e-02 -4.41264035e-03 -1.73571967e-02
    -3.15422914e-03 -4.18811776e-02 -1.98940039e-02 -2.11965037e-03
    -3.01007256e-02 -4.34066402e-03 -1.42731015e-02 -3.48297507e-02
    -3.99223082e-02 -2.33487296e-03 9.33344513e-02 8.33732169e-03
    9.13839880e-03 -4.48258333e-02 -5.43909939e-03 -2.61963494e-02
    -3.48564126e-02 -4.32801899e-03 8.99288878e-02 4.99617830e-02
    4.21415130e-03 2.00458383e-03 -4.87893894e-02 -4.49582525e-02
    -2.82161068e-02 4.12965901e-02 1.83564425e-02 7.62976408e-02
    -9.22644977e-03 -1.12235388e-02 3.35771516e-02 -2.93697056e-04
    1.11167692e-02 6.66447030e-03 -2.41841041e-02 -2.63947695e-02
    -1.95144094e-04 -6.94564125e-03 -7.04128249e-03 2.43146997e-02
    5.45643643e-03 -6.63125562e-03 -1.13764415e-02 -2.51859426e-02
    -1.81117579e-02 -8.86332616e-03 5.27231917e-02 1.64489765e-02
    3.00948508e-02 -9.06749256e-03 -2.60691363e-02 -4.66814637e-03
    4.57682945e-02 2.50454731e-02 7.65664428e-02 1.12891495e-02
    -7.34054623e-03 2.69006919e-02 -1.73544453e-03 3.97777045e-03
    -1.42025296e-02 -1.25595303e-02 -2.09066160e-02 1.95808001e-02
    -1.72666386e-02 2.42693201e-02 4.41211425e-02 2.24885028e-02
    1.59590002e-02 6.37622410e-03 -1.24637084e-02 -8.53789039e-03
    -8.04483891e-03 -2.45694742e-02 4.88649355e-03 2.37171855e-02
    2.23109908e-02 1.98203418e-02 1.85481682e-02 1.92339835e-03
    1.45760569e-04 -6.86357915e-03 2.25636759e-03 -1.27679214e-03
    3.07425410e-02 4.14992459e-02 4.61099781e-02 -2.12257425e-03
    -3.23600918e-02 -3.18145864e-02 3.36653506e-03 -1.58930942e-02
    1.77210744e-03 2.61224583e-02 3.11709419e-02 3.52300592e-02
    -5.92155149e-03 -2.35222373e-02 -1.45552531e-02 -2.83759870e-02
    1.34107778e-02 -8.23014695e-03 9.02730599e-03 1.88529827e-02
    5.82887977e-03 1.23521760e-02 4.31143399e-03 9.03620909e-04
    1.46339424e-02 1.38086919e-03 2.51119980e-03 1.49369622e-02
    3.56536247e-02 4.31695022e-03 5.10980515e-03 -1.82757471e-02
    -2.44567543e-02 -2.86073680e-03 -1.95632945e-03 -2.20242552e-02
    2.11496558e-02 4.03201953e-03 -2.04246137e-02 -2.81900615e-02
    -2.20294055e-02 7.66278431e-03 2.13357620e-03 -6.38853479e-03
    -2.44615395e-02 2.08952799e-02 6.47987844e-03 -1.56212123e-02
    -2.04262566e-02 6.74732000e-05 2.20784470e-02 1.69545431e-02
    -1.60274319e-02 -1.00764399e-02 -1.17747514e-02 -3.42364330e-03
    -4.73172590e-03 6.22276682e-03 2.69697085e-02 5.36957160e-02
    1.10568060e-02 2.07683146e-02 2.29020119e-02 1.42320506e-02
    -2.62143314e-02 5.74805262e-03 -3.86424619e-03 -2.18565073e-02
    -1.26410201e-02 1.89744551e-02 -4.01894283e-03 -1.88754443e-02
    -3.00623421e-02 3.20904218e-02 -6.65558781e-03 -4.45081107e-03
    3.41499634e-02 7.44390301e-03 -4.66455892e-03 3.96038499e-03
    2.33950131e-02 3.44563201e-02 2.44718939e-02 3.19628343e-02
    3.12477127e-02 2.47297380e-02 7.73991086e-03 8.82651564e-03
    -8.17231461e-03 -6.12164522e-03 1.80156413e-03 -6.61814660e-02
    -1.07197650e-02 -1.83556695e-02 -2.30345782e-02 -2.69056559e-02
    -2.29037143e-02 3.12535092e-02 2.71731578e-02 4.35511060e-02
    -1.43842250e-02 -2.46617664e-02 -1.43427467e-02 -3.46122198e-02
    -3.10064070e-02 -1.96677744e-02 -9.94748157e-03 6.37864843e-02
    5.66513687e-02 2.20427513e-02 3.71920243e-02 -1.82619912e-03
    -2.01138295e-02 -4.01956290e-02 -4.03357968e-02 4.00892943e-02
    7.76572153e-02 9.75148305e-02 3.99757512e-02 4.40341644e-02
    3.30137834e-03 -2.82807276e-02 -5.12946248e-02 -2.62765251e-02
    5.86505830e-02 7.40820915e-02 8.11019540e-02 1.07193151e-02
    -3.50453593e-02 -2.49449369e-02 -1.64636541e-02 -5.77642955e-03
    4.45247702e-02 7.13275969e-02 7.96042681e-02 3.43636759e-02
    -2.22509298e-02 -3.01453695e-02 -3.51743624e-02 -3.69836204e-02
    1.07490504e-02 9.09968242e-02 4.71376032e-02 7.21485987e-02
    8.00338909e-02 1.07174786e-03 -2.48061921e-02 -2.36497819e-02
    -1.65548548e-02 -1.56521667e-02 -2.73764879e-03 2.50920607e-03
    3.36639546e-02 3.95922661e-02 -2.99361069e-02 -3.51472944e-02
    -3.07191052e-02 -1.63068529e-02 -2.91229133e-02 -1.21910628e-02
    9.65904295e-02 2.32927501e-02 3.35431919e-02 -1.13444757e-02
    -6.37191813e-03 -1.13231624e-02 -2.21936814e-02 3.36956270e-02
    8.58081654e-02 6.75759614e-02 3.22144218e-02 -3.62244411e-03
    -4.52146586e-03 -3.20798606e-02 -6.31958898e-03 5.01342304e-02
    5.35986535e-02 9.50675681e-02 -1.18631758e-02 6.75775902e-03
    -1.73221361e-02 -1.20695001e-02 1.82807655e-03 -1.28279962e-02
    -9.36876982e-03 -1.32472245e-02 -6.98602106e-03 1.50324255e-02
    1.24692116e-02 -4.62454334e-02 -1.44671192e-02 -1.00632096e-02
    -1.58338752e-02 -1.39539521e-02 2.92341281e-02 3.23261321e-02
    5.66717908e-02 -9.38071811e-04 -1.71712916e-02 -3.15496624e-02
    -4.31592353e-02 -6.19118940e-03 1.03493698e-01 9.38088447e-02
    1.05462387e-01 2.17640270e-02 -7.92166684e-03 -2.32673739e-03
    -4.10842188e-02 -2.62395609e-02 1.03937864e-05 8.75485986e-02
    8.69391412e-02 4.31133509e-02 -2.94563733e-02 -4.08143625e-02
    -3.61608528e-02 -3.08567621e-02 -4.58048061e-02 -2.34517716e-02
    3.56658995e-02 3.47642787e-02 2.32477970e-02 -2.48920303e-02
    -1.90688930e-02 -2.70528235e-02 -6.29769936e-02 -2.81706806e-02
    4.74253148e-02 4.85789776e-02 6.57799244e-02 3.53316925e-02
    -8.84786714e-03 -1.77860782e-02 -3.51157738e-03 -5.94911340e-04
    3.89583246e-03 -7.55340559e-03 6.33806363e-02 4.21025231e-02
    -6.76250551e-03 -3.72222736e-02 -1.68238338e-02 -1.60172861e-02
    -1.98085923e-02 -3.06899995e-02 -2.91654952e-02 -4.11784537e-02
    -3.03700101e-02 -4.08089124e-02 -2.75624655e-02 -7.55044026e-03
    -2.00600941e-02 -1.59485899e-02 5.26191574e-03 8.03655162e-02
    1.26447722e-01 1.03687264e-01 7.59998849e-03 -4.00844850e-02
    -4.62469785e-03 -1.29785193e-02 -1.74384117e-02 -4.25790064e-03
    -3.13646090e-03 5.63326292e-02 2.71431040e-02 -4.30863276e-02
    2.00487971e-02 3.11947111e-02 4.25881296e-02 1.05088074e-02
    -2.23193169e-02 -2.19197161e-02 -1.54727614e-02 1.09818680e-02
    5.31962374e-03 5.89001167e-04 5.07036131e-03 2.78674681e-02
    1.29952477e-02 9.49442387e-03 -1.55917434e-02 7.96443317e-03
    2.19791345e-02 1.42461406e-02 1.93277411e-02 3.13253477e-02
    2.78170742e-02 1.94671489e-02 -1.45601006e-02 -2.94670407e-02
    -3.37205380e-02 5.23520447e-03 -1.05108209e-02 3.90622485e-03
    1.73551943e-02 3.13784033e-02 7.30590662e-03 -1.97957195e-02
    -2.40039341e-02 -6.34998130e-03 7.15565635e-03 4.03249403e-04
    -6.29790826e-03 -3.03351320e-02 -4.62828316e-02 -2.37967260e-02
    -3.38888094e-02 -3.73932347e-02 2.18093097e-02 3.65016726e-03
    -8.96060374e-03 4.94051352e-03 2.67508645e-02 3.99840921e-02
    1.17263719e-02 2.60886662e-02 -7.15599256e-03 1.66530628e-02
    4.12164629e-03 2.22583930e-03 -6.21708226e-04 -3.69890742e-02
    -5.15255406e-02 -2.74435058e-02 -1.19496873e-02 -1.59126706e-02
    -1.95341986e-02 1.85874254e-02 2.13024374e-02 1.98159683e-02
    2.15284228e-02 4.40610871e-02 1.24951834e-02 6.63301423e-02
    3.89702097e-02 9.14708059e-03 6.43487321e-04 1.88115425e-02
    -1.46146091e-02 6.87140077e-02 1.05566785e-01 7.62236416e-02
    3.43413986e-02 1.44177154e-02 3.29860579e-03 -3.62827331e-02
    -3.28677706e-02 -7.40641635e-03 5.29563800e-02 8.35248679e-02
    5.22976629e-02 2.00077239e-02 -4.45969217e-03 -1.72512401e-02
    -4.28025015e-02 -5.13127446e-02 -2.42888238e-02 3.20553184e-02
    6.61063492e-02 7.25292489e-02 4.87407446e-02 3.26503813e-02
    1.80775137e-03 -4.27244604e-02 -3.00263856e-02 -2.61580218e-02
    -8.37429892e-03 1.57765727e-02 1.52296843e-02 -2.07329448e-02
    -4.05441970e-02 -2.34070681e-02 -4.11077812e-02 -3.68608981e-02
    1.99271981e-02 2.18959171e-02 2.69372780e-02 2.13248990e-04
    3.67105915e-03 2.88199969e-02 4.92354371e-02 2.65728403e-02
    -1.29906358e-02 -9.18460079e-04 4.36792336e-03 -3.34006175e-03
    -1.64152049e-02 -2.16756277e-02 -5.77002158e-03 2.13634744e-02
    -7.19920907e-04 -3.09305042e-02 2.78583006e-03 1.77020319e-02
    6.69270474e-03 2.70139314e-02 1.35567216e-02 1.16715189e-02
    2.43028514e-02 3.85044254e-02 1.12284441e-03 -1.48118651e-02
    -5.42216562e-03 -3.60360146e-02 -1.63129214e-02 -7.39758462e-03
    -2.34399103e-02 1.84746552e-02 1.21620605e-02 -1.56499650e-02
    2.04980411e-02 1.19789364e-02 -2.60941628e-02 3.21457465e-03
    2.63703987e-03 1.14636002e-02 2.30404567e-02 4.28949716e-03
    -2.45720483e-02 -1.40397372e-02 -2.79936311e-03 -1.98503938e-02
    4.18703072e-03 -9.41927452e-03 -3.54430336e-03 -5.74141787e-03
    8.52077547e-03 -1.51272761e-02 1.07677998e-02 -2.24104035e-03
    -3.10613737e-02 1.90013763e-03 1.49832740e-02 2.11790495e-04
    5.47001092e-03 9.12682153e-03 -3.69705912e-03 1.04431333e-02
    -1.74117386e-02 -2.50035734e-03 1.95652083e-03 1.66116375e-02
    1.93895586e-02 1.86500642e-02 2.40202881e-02 -4.78029862e-04
    -3.76103371e-02 -1.50465546e-02 8.51388182e-03 -1.66537229e-03
    -7.08944863e-03 -9.80638992e-03 -1.28137078e-02 -4.57376987e-03
    -1.93398632e-02 2.12722961e-02 4.00236845e-02 3.48080993e-02
    -1.47422934e-02 6.15367433e-03 3.45935896e-02 3.74511420e-03
    3.24517787e-02 2.62988862e-02 4.14699549e-03 9.78690479e-03
    -7.84747396e-03 -2.04534158e-02 -4.51772055e-03 -1.17679229e-02
    -9.84326657e-03 6.74769050e-03 -5.13582863e-03 4.81662117e-02
    4.50418219e-02 1.53070046e-02 -9.90128238e-03 5.83087094e-03
    -3.16639990e-03 -1.23575451e-02 -3.60694947e-03 3.35885733e-02
    -2.79710721e-02 -1.59214307e-02 -1.19743347e-02 -3.74168418e-02
    1.72167749e-03 4.59034219e-02 6.37513697e-02 6.81217015e-02
    -2.66330782e-02 -3.52475867e-02 -4.50858250e-02 -1.21278130e-02
    5.71576040e-03 3.99682820e-02 3.58062685e-02 8.19174051e-02
    5.54502383e-02 -3.90359275e-02 -8.54702853e-03 -2.36385465e-02
    -5.66095207e-03 -2.66850111e-03 5.08814715e-02 3.38607877e-02
    4.32789922e-02 -1.63315944e-02 -2.96742953e-02 -4.37090248e-02
    -5.26016243e-02 -3.76501470e-03 7.43500665e-02 9.22236294e-02
    6.25056028e-02 6.67298213e-02 5.03723584e-02 -4.84763496e-02
    2.74042394e-02 -1.06649389e-02 -8.19935557e-03 9.37823486e-03
    1.64308995e-02 -3.42409611e-02 -7.58560654e-03 2.61791963e-02
    -5.20086568e-03 3.42172682e-02 -1.11951334e-02 -1.74984836e-03
    -2.13903189e-02 -2.36511510e-02 -2.39923559e-02 -3.43890898e-02
    -1.70454197e-02 5.28744841e-03 3.13721411e-02 -6.15420891e-03
    1.40717044e-03 4.50727232e-02 1.01033457e-01 4.88001518e-02
    4.45247442e-02 2.72579249e-02 1.00915215e-03 4.93173152e-02
    1.98112708e-02 -1.15806777e-02 -2.65616402e-02 -2.17396673e-02
    -3.29155773e-02 -3.28235999e-02 -1.79475993e-02 1.25547657e-02
    1.72020569e-02 -4.10025800e-03 -2.33035311e-02 -4.47895192e-02
    -2.29927842e-02 -3.53076346e-02 -2.67400984e-02 8.41841195e-03
    6.73064729e-03 1.30530382e-02 1.49573460e-02 4.12871391e-02
    3.38406302e-02 8.46580639e-02 5.71271926e-02 2.05685738e-02
    2.28093448e-03 -4.73771011e-03 1.23586338e-02 6.25673542e-03
    -2.66506560e-02 -3.75643522e-02 -3.85419205e-02 -3.16578746e-02
    -3.72409485e-02 -3.04888673e-02 -2.86025871e-02 -7.54784886e-03
    1.90201998e-02 3.30084376e-02 6.18664436e-02 6.17545843e-02
    4.88265939e-02 1.75606646e-02 -1.20774591e-02 -3.06606144e-02
    -1.74751040e-02 2.45039500e-02 3.85130793e-02 5.09644896e-02
    6.45104125e-02 5.06904460e-02 5.32864258e-02 -6.74620736e-04
    2.08605212e-04 -2.25201007e-02 -1.08915335e-02 -7.32823508e-03
    1.55083193e-02 -2.52542552e-02 -2.49241330e-02 1.43875089e-03
    -1.57942437e-02 -9.53726377e-03 -1.41259572e-02 6.88063074e-03
    2.18866765e-02 7.27133900e-02 6.88678026e-02 6.76309243e-02
    4.74076271e-02 3.55182327e-02 6.21220563e-03 -2.16778181e-02
    1.32398377e-03 1.47213927e-03 2.95711197e-02 6.13997877e-03
    1.61745436e-02 3.81516106e-02 8.99694685e-04 1.18607609e-02
    -1.34776924e-02 -8.39752238e-03 -1.18181081e-02 3.26232575e-02
    -1.28938500e-02 -9.15157702e-03 2.72273012e-02 9.79766436e-03
    -6.10913709e-03 -3.81556526e-02 -2.52541676e-02 -1.73548814e-02
    1.11231823e-02 -1.85432006e-02 -2.19579171e-02 1.18110247e-03
    -1.71314646e-02 -9.06500034e-03 -1.35935219e-02 9.63872205e-03
    2.28190795e-02 3.06242984e-02 1.50416857e-02 1.39473565e-02
    1.63555853e-02 1.50341680e-02 3.65781505e-03 -4.75326274e-03
    1.07123926e-02 4.53697983e-03 2.50946041e-02 6.47644326e-03
    -2.07026657e-02 -9.91312880e-03 -1.00388406e-02 -1.90064665e-02
    -1.16742346e-02 -1.87852550e-02 1.29418299e-02 1.95243247e-02
    8.39303684e-05 3.46575282e-04 -3.25764972e-03 -5.57691790e-03
    1.06737157e-02 3.70216090e-03 -2.25249566e-02 2.06381138e-02
    1.16866808e-02 2.61037698e-04 2.88609439e-03 -6.36162655e-03
    1.85208097e-02 4.33519296e-03 6.51140884e-03 3.09493655e-04
    1.20222941e-02 1.60072334e-02 -4.18133987e-03 -1.18831648e-02
    1.07878810e-02 1.19943097e-02 1.38402870e-02 -1.11976434e-02
    -3.16264890e-02 1.23437764e-02 -5.31575468e-04 -2.29190961e-02
    -2.83855945e-02 2.13342458e-02 2.58616116e-02 4.74390713e-03
    2.54999306e-02 4.47361777e-03 -5.64071862e-03 3.58767016e-03
    -1.16327219e-02 2.73407926e-03 -2.77968124e-02 -2.06275797e-03
    1.32643329e-02 7.19137862e-02 4.50384282e-02 1.43335126e-02
    2.25799121e-02 -1.17254602e-02 -1.39461663e-02 -2.61719357e-02
    -7.32319383e-03 5.79983704e-02 1.43135590e-02 -1.25951488e-02
    -2.71318597e-03 5.15938550e-03 -2.57280804e-02 -1.97956786e-02
    1.77360065e-02 8.59661587e-03 -1.63629577e-02 4.14557420e-02
    1.32076824e-02 -8.28494225e-03 6.47824164e-03 -1.90393366e-02
    1.68069510e-03 1.92915387e-02 8.55860580e-03 1.18726343e-02
    2.15957556e-02 4.63218894e-03 -4.69190115e-03 1.84809230e-02
    2.96755023e-02 -1.08742379e-02 -1.38218300e-02 -3.76862362e-02
    1.19312657e-02 -2.26654075e-02 -1.27580445e-02 7.01265130e-03
    6.14145324e-02 1.22976631e-01 7.56687745e-02 8.79062489e-02
    1.61699057e-02 -1.95208341e-02 -1.90332718e-02 -2.52112933e-03
    7.71106640e-03 5.49877109e-03 2.78976411e-02 -1.37797762e-02
    -5.33869676e-02 -3.91171835e-02 -2.83753909e-02 -3.01424563e-02
    1.67191476e-02 5.44714183e-02 4.82766964e-02 6.84787855e-02
    9.08732563e-02 1.08380327e-02 -3.24118026e-02 -2.41660941e-02
    -2.21968815e-03 -1.57361384e-02 4.79822652e-03 1.74301136e-02
    1.11103237e-01 4.32800017e-02 2.33322978e-02 1.59529317e-02
    9.25299525e-03 2.85196323e-02 -6.54482329e-03 -1.57219488e-02
    -4.14998718e-02 -4.77778353e-02 -3.05146612e-02 -4.82773371e-02
    -2.13485025e-02 2.30560638e-03 -5.62602887e-03 2.00977456e-03
    3.23666260e-02 2.13374011e-02 6.96686432e-02 6.10969365e-02
    -1.11528412e-02 -1.83036905e-02 -6.66871434e-03 2.60872655e-02
    -2.74615851e-03 -3.52581032e-02 -3.55855562e-02 -4.52161096e-02
    -2.60307156e-02 -4.57130149e-02 -3.17345071e-03 2.57441606e-02
    6.44759368e-03 5.11547318e-03 1.02121215e-02 -1.85528956e-02
    6.43061334e-03 -2.67297961e-02 -3.39248218e-02 -2.14647949e-02
    -1.54254474e-02 8.34515411e-03 9.65935551e-03 2.31223740e-02
    3.88166867e-02 7.62355253e-02 5.54034859e-02 2.22028717e-02
    1.69874039e-02 -1.91578194e-02 2.01213695e-02 1.66730657e-02
    3.98421362e-02 -1.39160557e-02 -3.61102819e-02 -6.85080662e-02
    -3.51578370e-02 -7.81791843e-03 -2.37476733e-03 2.49552857e-02
    9.69559047e-03 1.35369366e-03 8.31319857e-03 3.42210159e-02
    2.43677199e-02 9.46938712e-03 2.92646140e-02 4.96227434e-03
    -2.40673963e-02 -3.52963172e-02 -1.25157135e-02 4.56035957e-02
    7.19469339e-02 8.01322013e-02 6.56349733e-02 4.33699116e-02
    -1.58221349e-02 -2.25747470e-02 -1.44406697e-02 -1.30394418e-02
    -9.56975273e-05 1.65051538e-02 1.69566013e-02 3.16313691e-02
    2.27747932e-02 -7.89040886e-03 -8.77618883e-03 -1.44352252e-02
    -8.38926621e-03 8.54452446e-05 4.49216664e-02 4.76291627e-02
    5.40095828e-02 5.83178215e-02 -3.13969003e-03 -5.42628616e-02
    -6.67438190e-03 -1.93541963e-02 -1.10991159e-02 1.31901400e-02
    3.08325123e-02 7.25448802e-02 6.45033643e-02 -5.88181894e-03
    4.54025343e-04 2.50683613e-02 1.08049950e-02 4.49992949e-03
    6.32077595e-03 1.88326109e-02 1.82682332e-02 4.73637767e-02
    1.22123007e-02 -1.46874804e-02 1.40081057e-02 -2.04484947e-02
    -7.69926887e-03 1.11220137e-03 -5.31295734e-03 9.53356177e-03
    7.13316817e-03 -1.52389621e-02 -1.17006302e-02 3.74416523e-02
    3.10754906e-02 2.20931694e-02 8.27950891e-03 1.50171919e-02
    4.92915288e-02 2.29922459e-02 1.05807800e-02 -2.01709941e-02
    1.83487739e-02 6.71391434e-04 -4.10917355e-03 3.86365363e-03
    9.98142175e-03 2.19150027e-03 -1.54517563e-02 -1.58606265e-02
    1.22762695e-02 1.56524573e-02 -7.09708408e-03 -2.96503003e-03
    7.93872308e-03 -9.03963950e-03 1.13302516e-02 -1.01825530e-02
    1.24477241e-02 -2.65079606e-02 -3.57422233e-02 5.63922571e-03
    -9.36363358e-03 5.96363330e-03 -2.01828387e-02 7.58560887e-03
    1.70742744e-03 -9.66333784e-03 5.27784554e-03 1.80035643e-02
    -4.81810980e-03 1.14742462e-02 2.10547354e-02 5.49804512e-03
    1.94731560e-02 8.07458535e-03 7.74976518e-03 -6.62829448e-03
    -2.22344808e-02 1.20487921e-02 6.24911627e-03 2.83213090e-02
    9.27484781e-03 2.03626920e-02 1.15353623e-02 5.36501454e-03
    -3.36018391e-02 -2.43030973e-02 -2.02333219e-02 -2.42251493e-02
    -2.46920250e-02 -1.95174851e-02 3.33670266e-02 8.15284718e-03
    -1.55890873e-02 -5.50059788e-03 4.81283711e-03 1.55647704e-03
    2.16881838e-02 3.69626377e-03 8.91359616e-03 5.51297925e-02
    1.81204900e-02 1.63706811e-03 -6.71690982e-03 -2.67977770e-02
    3.07698864e-02 -4.17797221e-03 -5.19379275e-03 1.32780392e-02
    2.11193282e-02 6.47371262e-03 1.98288374e-02 2.04784945e-02
    1.74497925e-02 2.31553502e-02 6.34467453e-02 2.88284421e-02
    1.13470638e-02 4.93051000e-02 3.99986580e-02 5.37462421e-02
    -3.95917259e-02 1.86444912e-02 3.44462171e-02 1.56078711e-02
    1.82837714e-02 -1.64579842e-02 -3.47655378e-02 -5.04642762e-02
    -4.72745299e-02 -3.10923588e-02 5.66918887e-02 7.26869702e-02
    6.96574822e-02 9.65732038e-02 8.85011107e-02 -2.95710936e-02
    -6.06898479e-02 -3.55821326e-02 -1.37433794e-03 8.64839554e-02
    1.01114884e-01 7.50748590e-02 8.88081361e-03 -3.78421731e-02
    -1.42504964e-02 -2.94802245e-02 -2.46259905e-02 -1.19704660e-02
    6.92683831e-02 8.27456191e-02 2.47830823e-02 3.64007168e-02
    -2.16225185e-03 -2.31062919e-02 -3.46969850e-02 -2.57504750e-02
    1.16985859e-02 2.10539680e-02 2.56274417e-02 -1.22193375e-03
    6.76894262e-02 7.75669292e-02 8.58505722e-03 -1.64248198e-02
    -1.51848560e-03 2.43265033e-02 1.58204604e-02 -1.68722589e-02
    -3.49096879e-02 -6.12243591e-03 8.38486245e-04 1.68554503e-02
    2.55746972e-02 3.03436741e-02 -7.11280573e-03 6.02002442e-03
    -2.12008264e-02 -4.47769016e-02 9.07959975e-03 1.20723918e-02
    -8.61818995e-03 5.50912227e-03 2.59707589e-03 7.00898655e-03
    -1.31975859e-02 -4.40264158e-02 -2.19057295e-02 -1.44746779e-02
    -3.85650573e-03 1.88114103e-02 3.13111320e-02 1.90500673e-02
    3.48832831e-03 1.25446497e-02 1.89137869e-02 -1.02405446e-02
    -9.00914893e-03 -3.53938863e-02 -3.12799476e-02 8.75383057e-03
    -7.80844456e-03 7.99694471e-03 2.37697251e-02 1.52125116e-02
    1.45501168e-02 1.91348344e-02 3.55508663e-02 2.89027691e-02
    4.30157268e-03 1.16241421e-03 4.48395498e-03 2.50470359e-02
    3.18561122e-02 -5.33802575e-03 1.04488116e-02 -2.38942765e-02
    9.24491510e-03 7.29161967e-03 8.59813485e-03 -1.73419788e-02
    2.38371398e-02 1.42388595e-02 -7.99411070e-03 -2.97750700e-02
    -2.72201970e-02 -1.18682887e-02 8.15310329e-03 1.74923113e-03
    -2.01334059e-02 -2.14758515e-03 -1.63736977e-02 -2.24583000e-02
    2.50640158e-02 3.76386754e-02 6.71083555e-02 5.09334207e-02
    -2.33695786e-02 -2.80784760e-02 -6.75591221e-03 -1.37228202e-02
    -1.37970012e-04 1.69732831e-02 4.95676808e-02 1.20014921e-01
    1.02325320e-01 1.30545860e-02 -2.89828628e-02 1.38412444e-02
    -6.16560504e-03 -9.12719965e-03 -1.72448643e-02 -2.73693446e-02
    7.11645233e-03 -1.17978975e-02 -6.06150180e-02 -7.20708724e-03
    9.76806972e-03 -9.83728003e-03 -1.18512949e-02 1.01809194e-02
    1.51718594e-02 2.11735889e-02 1.04324268e-02 -2.90844534e-02
    -2.40821708e-02 -1.95065383e-02 -5.91260195e-03 -1.10803861e-02
    -2.40285322e-02 4.50620390e-02 8.44216421e-02 9.22210887e-02
    1.27540911e-02 -5.31366840e-03 -2.85589248e-02 -3.20483223e-02
    -2.87478380e-02 -3.01002283e-02 -8.71025305e-03 4.56559844e-02
    4.40844335e-02 3.14893643e-03 3.52308862e-02 -2.68342197e-02
    -1.03848632e-02 -2.87237410e-02 -1.02033364e-02 3.01535334e-02
    5.02080880e-02 6.01846837e-02 2.42717415e-02 5.44178337e-02
    -1.12914313e-02 -2.23939568e-02 -5.52248210e-02 -3.17795053e-02
    1.84533615e-02 5.34006767e-02 5.73777854e-02 6.31473064e-02
    1.29465200e-02 -1.66282617e-02 -3.25134061e-02 -1.46736018e-02
    -1.20232282e-02 -1.91086326e-02 -6.77712541e-03 2.23841555e-02
    1.53452286e-03 1.80901270e-02 8.84210970e-03 -1.54887065e-02
    -2.24893410e-02 -1.22215981e-02 -8.42581782e-03 7.37743545e-03
    8.42264853e-03 3.13611142e-02 6.63981140e-02 6.45708740e-02
    1.71787869e-02 -8.29424802e-03 -2.43657008e-02 -2.02650502e-02
    3.88524383e-02 3.13274823e-02 8.12691972e-02 7.37027898e-02
    6.40040711e-02 5.94776571e-02 -5.91459358e-03 -4.58335616e-02
    -2.31567826e-02 -1.09872557e-02 2.52211131e-02 7.93551281e-02
    8.61649029e-03 1.53359510e-02 4.10100333e-02 -4.27898206e-02
    -3.78535762e-02 -2.13955548e-02 -3.26415040e-02 -2.92205457e-02
    1.00711035e-02 3.12119108e-02 8.75360370e-02 8.95127207e-02
    5.10077514e-02 -3.15234177e-02 -4.10788506e-02 -3.64060812e-02
    -2.06620228e-02 8.47494043e-03 1.03655256e-01 9.49358940e-02
    8.81560445e-02 -1.27072912e-02 -4.32865396e-02 -4.17365022e-02
    -5.42069897e-02 -9.26687289e-03 6.72148690e-02 1.69289056e-02
    8.22491795e-02 7.27925599e-02 1.37240244e-02 -2.63881199e-02
    -5.31940423e-02 -5.23556396e-02 -2.08731163e-02 9.59346630e-03
    4.16038409e-02 1.31601125e-01 1.45548463e-01 1.10990390e-01
    9.14665777e-03 -1.58047173e-02 -1.09613426e-02 -3.05158028e-04
    5.71800210e-03 -4.32672538e-02 3.71953920e-02 6.81379139e-02
    1.72146372e-02 7.05438619e-03 -2.09882911e-02 -1.30019989e-02
    -7.10694538e-03 -3.16457823e-02 -2.58708000e-02 4.01935317e-02
    4.56200279e-02 3.85622447e-03 -1.75614227e-02 -3.10944282e-02
    -2.16990449e-02 -1.67996343e-02 -3.50570828e-02 -8.65894482e-02
    -4.08079699e-02 -1.77891441e-02 -4.09431010e-02 -2.71303058e-02
    -2.82817595e-02 1.15166760e-04 -4.32436680e-03 -4.55329567e-02
    -3.33300978e-02 -1.26559008e-02 -2.00028345e-02 -2.13040747e-02
    -2.32264819e-03 1.06309373e-02 6.70678262e-03 1.92292705e-02
    1.29086813e-02 5.16200162e-05 -1.82893500e-02 -8.00110307e-03
    8.93293601e-03 1.06765246e-02 1.04944548e-02 1.46555705e-02
    3.19484435e-02 2.44012494e-02 -4.28751111e-02 -3.69963162e-02
    -1.63278002e-02 -1.73677243e-02 9.20101255e-03 1.72360111e-02
    3.96960378e-02 3.59299183e-02 -1.06484387e-02 3.40608205e-03
    4.04776493e-03 1.63289532e-03 2.46857554e-02 2.47916076e-02
    3.16644013e-02 2.33571567e-02 2.16940138e-02 -7.11173331e-03
    -8.02782550e-03 2.65544355e-02 2.30098050e-02 -4.35388321e-03
    1.36481673e-02 -1.44405076e-02 3.07334680e-02 -1.09011512e-02
    3.65286018e-03 1.63066154e-03 2.81730816e-02 9.22292843e-03
    -2.75443625e-02 -1.07057095e-02 -2.89659202e-02 -2.95276102e-03
    -1.89741608e-02 1.00650061e-02 -2.06630770e-03 1.98471155e-02
    3.37538235e-02 1.40863769e-02 2.94759497e-02 5.58810867e-03
    1.44204916e-02 -2.77219042e-02 6.07384788e-03 -2.94308048e-02
    5.90625033e-03 -4.03373409e-03 -1.99554302e-02 2.54348572e-02
    2.00528651e-02 -1.01968530e-03 -4.24673371e-02 -1.51442820e-02
    2.18614340e-02 2.89709345e-02 4.72844392e-02 1.64778754e-02
    9.14977805e-04 1.34164514e-02 6.67141052e-03 -1.63579024e-02
    7.76244281e-03 1.70761961e-02 3.63131985e-03 3.61486189e-02
    -6.10261690e-03 4.69906768e-03 1.08438823e-02 8.95017851e-03
    -1.72592364e-02 6.51961286e-03 -2.42785476e-02 8.70010443e-03
    2.32115109e-03 -8.46379809e-03 2.32956540e-02 4.31327522e-02
    1.43794846e-02 -3.32427695e-02 -2.76505072e-02 -2.78868657e-02
    -1.66702997e-02 5.71448077e-03 -1.39190387e-02 4.80569480e-03
    1.12255728e-02 -1.63122488e-03 -1.78855415e-02 -3.81004773e-02
    4.66703288e-02 -2.60828976e-02 -7.70641258e-03 9.34884301e-04
    1.24133667e-02 3.43887657e-02 4.16401140e-02 1.10145817e-02
    3.02614719e-02 5.82625382e-02 -1.14693176e-02 -9.56325419e-03
    -8.64170585e-03 4.27621882e-03 2.24991422e-02 5.30767217e-02
    3.58461738e-02 5.03177792e-02 -3.55438404e-02 -2.46157479e-02
    1.63728632e-02 8.02221801e-03 6.24016719e-03 1.10902928e-03
    -2.44961102e-05 3.06880008e-03 -3.46390940e-02 -1.35773141e-02
    -2.79334988e-02 -9.78992321e-03 3.25527112e-03 -1.79588478e-02
    -5.19801006e-02 -4.31048609e-02 -1.21120978e-02 -2.52388977e-02
    5.54878898e-02 2.26203613e-02 -1.12796938e-02 -1.00199850e-02
    -1.41067412e-02 -2.20055934e-02 2.48818472e-02 3.45347226e-02
    7.32942522e-02 7.82880336e-02 5.43931127e-02 -5.26846712e-03
    -3.70548218e-02 -4.42595454e-03 -5.38361957e-03 -8.94695334e-03
    9.66223795e-03 8.72282535e-02 -1.98158193e-02 -3.04192640e-02
    -5.53296730e-02 -7.12139579e-03 -8.68330337e-03 -4.25281785e-02
    -2.02438589e-02 -2.21395865e-02 -6.32583955e-03 -2.05873474e-02
    -2.31210217e-02 -4.39091474e-02 -2.10113935e-02 4.58468013e-02
    1.15946159e-02 -6.45981811e-04 -6.65027136e-03 -2.96700727e-02
    7.73226321e-02 5.75402081e-02 3.13598551e-02 -1.36519959e-02
    -1.42583419e-02 -1.35554448e-02 -1.88017301e-02 -1.48477880e-02
    4.77449745e-02 1.97439101e-02 1.35059059e-02 2.99145244e-02
    1.53890904e-02 -1.18176115e-03 -1.48401270e-02 -1.31290313e-02
    -8.82761832e-03 5.67420293e-03 -1.30661298e-02 -1.47437453e-02
    -2.90267877e-02 2.31424160e-03 2.65590362e-02 7.37450726e-04
    1.56342089e-02 5.60128305e-04 -5.07116877e-02 -3.16715464e-02
    -2.47270558e-02 -2.52759364e-02 7.88404979e-03 1.25692338e-02
    -1.40435481e-02 -6.04442321e-03 7.36788660e-03 -4.66011465e-02
    -1.61590986e-02 -8.05499963e-04 -4.82514780e-03 1.33010373e-02
    8.52348842e-03 3.84232961e-03 3.57902818e-03 1.00963730e-02
    -1.31374775e-02 -4.81267907e-02 -1.79626774e-02 -2.72954553e-02
    -1.58032849e-02 -9.10030119e-03 1.31316371e-02 3.31721082e-02
    1.94088891e-02 -1.61762275e-02 -1.12785352e-02 -2.97641684e-03
    -1.18595362e-02 1.78158153e-02 1.42045058e-02 1.74229965e-02
    1.07552689e-02 2.66317632e-02 -3.18525732e-02 -1.29048824e-02
    3.11511429e-03 1.60707179e-02 3.09079196e-02 1.49155315e-02
    1.38600813e-02 2.54232856e-03 2.14475524e-02 3.33832065e-03
    -3.47129628e-02 -3.37230898e-02 -4.30619195e-02 -2.61546876e-02
    -8.66382662e-03 9.92058776e-03 4.17078808e-02 2.52596475e-02
    -2.07885285e-03 -1.36899445e-02 -1.17278090e-02 -2.55544279e-02
    5.84601611e-03 1.43784238e-02 3.87553796e-02 4.15720940e-02
    1.20373908e-02 -3.11459228e-02 -1.84303038e-02 -1.94590949e-02
    -1.45022823e-02 4.27603256e-03 -1.72705725e-02 -2.53453217e-02
    1.57699343e-02 1.96122602e-02 3.34367086e-03 -2.95187850e-02
    -8.03017151e-03 -2.77760103e-02 -1.05497073e-02 2.41980003e-03
    3.19600813e-02 4.68124934e-02 2.05225870e-02 -1.04888193e-02
    -2.03273964e+00</SVMDetector></s64d794f40>
</opencv_storage>
